{
    "weights": [
        [
            [
                -0.5866287852507748,
                -0.5853628940340032,
                -0.8607456526717058,
                -0.944840484493164
            ],
            [
                -0.6968407905219479,
                -3.2490614725538083,
                4.325514608022519,
                2.607946199567359
            ],
            [
                -30.43739377228319,
                -15.836455306091715,
                36.18919013165842,
                41.457495058803076
            ],
            [
                -0.561066808558116,
                -0.5343658336718271,
                -0.492880390859677,
                -0.7985205674909854
            ],
            [
                -0.14349431213991426,
                1.3119615168521388,
                1.2616995423793596,
                1.2746582803966493
            ],
            [
                -0.9774082763142965,
                -1.1610709724503347,
                0.31066895053308796,
                0.5036981851987362
            ]
        ],
        [
            [
                -0.26891458889875186,
                -10.647528410741284,
                -2.255972889540169,
                -0.7070848697865102,
                2.7187975489747602,
                0.6802497278798127
            ],
            [
                -0.061420846807086524,
                10.189616148304907,
                -8.134455712366519,
                1.0264306647316885,
                -3.8496962181135905,
                -0.15426205386661004
            ],
            [
                0.6581657997947967,
                1.66508419368724,
                8.439206744767072,
                0.47428307754881477,
                -3.7526450691854976,
                -0.7646739059777472
            ]
        ]
    ],
    "biases": [
        [
            [
                -0.9485384059254177
            ],
            [
                -0.04597674234275992
            ],
            [
                -9.792605829938081
            ],
            [
                -0.03038275459294347
            ],
            [
                0.6648745011267804
            ],
            [
                -0.3032254011318235
            ]
        ],
        [
            [
                2.5275487796514797
            ],
            [
                -1.202513929119859
            ],
            [
                -3.35466918557869
            ]
        ]
    ]
}